%YAML:1.0
my_svm: !!opencv-ml-svm
   svm_type: EPS_SVR
   kernel: { type:RBF, gamma:1. }
   C: 10.
   p: 1.0000000000000000e-03
   term_criteria: { epsilon:1.1920928955078125e-07, iterations:1000 }
   var_all: 20
   var_count: 20
   sv_total: 239
   support_vectors:
      - [ 45543., 16., 124., 16., 1982., 42181., 0., 0., 0., 0., 8., 0.,
          0., 0., 0., 44., 0., 0., 0., 86. ]
      - [ 44710., 36., 208., 24., 2271., 42386., 0., 0., 0., 4., 28., 0.,
          0., 0., 0., 165., 0., 1., 0., 163. ]
      - [ 45305., 24., 188., 36., 2375., 41663., 0., 0., 0., 4., 44., 0.,
          0., 0., 0., 208., 0., 0., 0., 149. ]
      - [ 45540., 32., 236., 20., 2752., 40941., 0., 0., 0., 4., 64., 0.,
          0., 0., 0., 144., 0., 1., 0., 258. ]
      - [ 44594., 43., 296., 28., 2826., 41459., 0., 0., 0., 12., 62.,
          0., 0., 0., 0., 245., 4., 0., 0., 415. ]
      - [ 45489., 52., 291., 28., 3293., 39985., 0., 0., 0., 4., 144.,
          0., 0., 0., 0., 340., 0., 4., 0., 354. ]
      - [ 44749., 28., 232., 36., 2780., 41123., 0., 0., 8., 32., 224.,
          0., 0., 0., 0., 289., 0., 1., 0., 478. ]
      - [ 43979., 32., 272., 44., 3443., 40717., 0., 0., 0., 12., 296.,
          0., 0., 0., 0., 427., 8., 0., 0., 734. ]
      - [ 43175., 44., 379., 32., 3461., 41182., 0., 0., 4., 32., 281.,
          0., 0., 0., 0., 410., 4., 0., 0., 964. ]
      - [ 43607., 60., 304., 40., 3276., 40927., 0., 0., 8., 24., 322.,
          0., 0., 0., 4., 493., 4., 0., 0., 886. ]
      - [ 43490., 40., 396., 28., 3059., 41753., 0., 0., 0., 16., 129.,
          0., 0., 0., 0., 434., 0., 0., 0., 635. ]
      - [ 43701., 32., 360., 16., 3344., 41306., 0., 0., 0., 16., 187.,
          0., 0., 0., 0., 467., 0., 0., 0., 559. ]
      - [ 44893., 28., 116., 16., 2080., 42766., 0., 0., 0., 0., 12., 0.,
          0., 0., 0., 15., 0., 0., 0., 74. ]
      - [ 42831., 16., 167., 32., 2231., 44400., 0., 0., 0., 0., 10., 0.,
          0., 0., 0., 149., 0., 0., 0., 160. ]
      - [ 43501., 24., 152., 17., 2771., 43035., 0., 0., 0., 8., 52., 0.,
          0., 0., 0., 186., 0., 0., 0., 254. ]
      - [ 44427., 32., 253., 32., 2661., 41736., 0., 0., 0., 0., 82., 0.,
          0., 0., 0., 339., 0., 0., 1., 424. ]
      - [ 43163., 28., 303., 24., 3025., 42285., 0., 0., 0., 8., 110.,
          0., 0., 0., 4., 465., 4., 0., 0., 569. ]
      - [ 43102., 24., 284., 24., 3118., 41767., 0., 0., 4., 16., 225.,
          0., 0., 0., 0., 518., 0., 0., 0., 886. ]
      - [ 42759., 20., 319., 36., 3390., 41551., 0., 0., 0., 32., 343.,
          0., 0., 0., 0., 542., 4., 0., 0., 976. ]
      - [ 41796., 40., 351., 36., 3225., 42428., 0., 0., 8., 28., 317.,
          0., 0., 0., 4., 565., 4., 0., 0., 1142. ]
      - [ 41172., 32., 302., 32., 3458., 42774., 0., 0., 0., 28., 311.,
          0., 0., 0., 0., 687., 0., 8., 0., 1148. ]
      - [ 41542., 20., 344., 56., 3442., 42298., 0., 0., 0., 56., 278.,
          0., 0., 0., 0., 712., 8., 0., 0., 1196. ]
      - [ 41024., 36., 338., 28., 3510., 43006., 0., 0., 0., 24., 169.,
          0., 0., 0., 0., 751., 0., 4., 0., 1078. ]
      - [ 40383., 20., 360., 40., 3343., 43923., 0., 0., 0., 4., 190.,
          0., 0., 0., 0., 677., 8., 4., 0., 1024. ]
      - [ 44867., 20., 164., 18., 1972., 42783., 0., 0., 4., 4., 24., 0.,
          0., 0., 0., 40., 0., 0., 0., 100. ]
      - [ 43333., 36., 149., 16., 2287., 43863., 0., 0., 0., 4., 23., 0.,
          0., 0., 0., 164., 0., 0., 0., 125. ]
      - [ 43660., 44., 220., 12., 2541., 42656., 0., 0., 0., 4., 68., 0.,
          0., 0., 0., 401., 0., 0., 0., 382. ]
      - [ 42692., 40., 252., 40., 2975., 42787., 0., 0., 4., 4., 152.,
          0., 0., 0., 0., 464., 4., 0., 0., 574. ]
      - [ 41836., 52., 348., 36., 3332., 42290., 0., 0., 8., 16., 170.,
          0., 0., 0., 0., 758., 4., 0., 0., 1106. ]
      - [ 41554., 44., 320., 44., 3509., 42102., 0., 0., 4., 16., 280.,
          0., 0., 0., 0., 958., 4., 0., 0., 1121. ]
      - [ 41058., 30., 352., 36., 3329., 42521., 0., 0., 4., 24., 313.,
          0., 0., 0., 4., 1007., 4., 8., 0., 1258. ]
      - [ 40082., 76., 292., 36., 3500., 42908., 0., 0., 4., 40., 365.,
          0., 0., 0., 0., 1125., 4., 4., 0., 1520. ]
      - [ 40509., 32., 396., 40., 3514., 41962., 0., 0., 0., 24., 348.,
          0., 0., 0., 4., 1407., 4., 8., 0., 1700. ]
      - [ 39350., 44., 361., 43., 3616., 43475., 0., 0., 4., 20., 313.,
          0., 0., 0., 4., 1235., 4., 4., 0., 1475. ]
      - [ 40373., 44., 300., 52., 3655., 42532., 0., 4., 0., 28., 342.,
          0., 0., 0., 0., 1038., 0., 0., 0., 1596. ]
      - [ 40218., 28., 276., 30., 3288., 43623., 0., 0., 0., 8., 148.,
          0., 0., 0., 0., 1030., 0., 4., 0., 1323. ]
      - [ 43673., 28., 144., 16., 2285., 43594., 0., 0., 0., 0., 32., 0.,
          0., 0., 0., 68., 0., 0., 0., 156. ]
      - [ 43426., 40., 166., 28., 2083., 43972., 0., 0., 0., 0., 24., 0.,
          0., 0., 0., 140., 0., 0., 0., 121. ]
      - [ 43854., 52., 201., 28., 3001., 42099., 0., 0., 0., 12., 92.,
          0., 0., 0., 0., 319., 0., 0., 0., 314. ]
      - [ 42570., 24., 311., 24., 3245., 42044., 0., 0., 4., 8., 136.,
          0., 0., 0., 0., 753., 8., 0., 0., 861. ]
      - [ 41638., 36., 325., 72., 3202., 42495., 0., 0., 0., 20., 228.,
          0., 0., 0., 0., 822., 16., 5., 0., 1125. ]
      - [ 40758., 60., 336., 64., 3577., 42432., 0., 0., 0., 44., 313.,
          0., 0., 0., 0., 1036., 0., 0., 0., 1352. ]
      - [ 40625., 68., 320., 48., 3629., 42475., 0., 0., 0., 28., 331.,
          0., 0., 0., 0., 988., 4., 0., 0., 1428. ]
      - [ 40160., 76., 317., 48., 3380., 42129., 0., 0., 4., 36., 434.,
          0., 0., 0., 0., 1273., 4., 8., 0., 2078. ]
      - [ 38759., 44., 391., 48., 3609., 43448., 0., 0., 0., 46., 416.,
          0., 0., 0., 0., 1286., 4., 0., 0., 1837. ]
      - [ 38678., 48., 359., 40., 3527., 43607., 0., 0., 4., 32., 223.,
          0., 0., 0., 4., 1425., 24., 4., 0., 1971. ]
      - [ 40024., 37., 384., 48., 3495., 43071., 0., 0., 0., 28., 238.,
          0., 0., 0., 0., 1138., 16., 0., 0., 1473. ]
      - [ 39340., 60., 336., 40., 3332., 43865., 0., 0., 4., 20., 220.,
          0., 0., 0., 4., 1313., 12., 8., 0., 1426. ]
      - [ 44057., 43., 128., 28., 2183., 43301., 0., 0., 0., 4., 28., 0.,
          0., 0., 0., 104., 0., 4., 0., 120. ]
      - [ 42531., 20., 196., 16., 2510., 44191., 0., 0., 0., 0., 32., 0.,
          0., 0., 0., 286., 0., 1., 0., 213. ]
      - [ 44051., 64., 254., 52., 2975., 41353., 0., 0., 0., 4., 101.,
          0., 0., 0., 0., 566., 0., 4., 0., 564. ]
      - [ 41691., 32., 304., 28., 3463., 42889., 0., 0., 4., 16., 158.,
          0., 0., 0., 0., 597., 4., 0., 0., 790. ]
      - [ 40617., 44., 306., 44., 3196., 43537., 0., 0., 8., 20., 259.,
          0., 0., 0., 0., 931., 12., 0., 0., 1010. ]
      - [ 40673., 56., 348., 40., 3456., 42784., 0., 0., 4., 36., 295.,
          0., 0., 0., 0., 1086., 4., 0., 4., 1206. ]
      - [ 40811., 48., 264., 36., 3668., 42234., 0., 0., 4., 8., 383.,
          0., 0., 0., 0., 1191., 8., 0., 0., 1337. ]
      - [ 40824., 28., 372., 56., 3424., 42129., 0., 0., 4., 15., 327.,
          0., 0., 0., 0., 1261., 0., 4., 0., 1512. ]
      - [ 38593., 36., 337., 57., 3644., 43239., 0., 0., 8., 16., 313.,
          0., 0., 0., 0., 1856., 4., 4., 0., 1793. ]
      - [ 39304., 76., 344., 56., 3484., 43604., 0., 0., 0., 17., 202.,
          0., 0., 0., 0., 1295., 8., 12., 0., 1574. ]
      - [ 38616., 28., 308., 40., 3578., 44154., 0., 0., 0., 28., 207.,
          0., 0., 0., 0., 1473., 8., 8., 0., 1540. ]
      - [ 39180., 44., 281., 36., 3304., 44801., 0., 0., 0., 8., 147.,
          0., 0., 0., 0., 1022., 8., 0., 0., 1117. ]
      - [ 42935., 24., 128., 4., 1988., 44715., 0., 0., 0., 4., 12., 0.,
          0., 0., 0., 57., 0., 0., 0., 133. ]
      - [ 43415., 16., 161., 28., 2155., 43822., 0., 0., 0., 4., 8., 0.,
          0., 0., 0., 189., 0., 0., 0., 202. ]
      - [ 42570., 20., 254., 28., 2744., 43445., 0., 0., 0., 0., 76., 0.,
          0., 0., 0., 396., 0., 0., 0., 459. ]
      - [ 41103., 52., 276., 33., 2987., 43987., 0., 0., 0., 8., 144.,
          0., 0., 0., 0., 601., 0., 0., 0., 801. ]
      - [ 39861., 16., 372., 44., 3273., 44542., 0., 0., 8., 24., 201.,
          0., 0., 0., 0., 764., 0., 4., 0., 879. ]
      - [ 42041., 24., 300., 28., 3149., 42456., 0., 0., 4., 28., 233.,
          0., 0., 0., 0., 769., 4., 0., 0., 948. ]
      - [ 41030., 48., 362., 20., 3352., 42850., 0., 0., 0., 28., 186.,
          0., 0., 0., 4., 942., 8., 0., 0., 1154. ]
      - [ 41714., 56., 372., 44., 3319., 42253., 0., 0., 4., 20., 207.,
          0., 0., 0., 0., 774., 0., 8., 0., 1187. ]
      - [ 40912., 28., 291., 50., 3244., 42952., 0., 0., 0., 20., 248.,
          0., 0., 0., 0., 1062., 8., 5., 0., 1152. ]
      - [ 40765., 32., 307., 24., 3333., 43226., 0., 0., 8., 8., 132.,
          0., 0., 0., 0., 1027., 12., 4., 0., 1102. ]
      - [ 39507., 36., 320., 36., 3429., 44707., 0., 0., 0., 24., 128.,
          0., 0., 0., 0., 785., 8., 4., 0., 988. ]
      - [ 39401., 36., 318., 24., 3347., 45016., 0., 0., 0., 16., 88.,
          0., 0., 0., 0., 869., 4., 0., 0., 881. ]
      - [ 42843., 24., 96., 12., 2128., 44698., 0., 0., 0., 0., 12., 0.,
          0., 0., 0., 59., 0., 0., 0., 116. ]
      - [ 41885., 36., 124., 16., 2124., 45526., 0., 0., 0., 0., 20., 0.,
          0., 0., 0., 174., 0., 0., 1., 94. ]
      - [ 42742., 28., 152., 8., 2405., 43911., 0., 0., 0., 0., 48., 0.,
          0., 0., 0., 247., 0., 1., 0., 450. ]
      - [ 42466., 28., 280., 16., 2729., 43572., 0., 0., 4., 4., 92., 0.,
          0., 0., 0., 396., 0., 1., 0., 400. ]
      - [ 41067., 60., 292., 24., 3228., 44035., 0., 0., 0., 4., 76., 0.,
          0., 0., 0., 497., 4., 0., 0., 692. ]
      - [ 40976., 28., 281., 32., 2980., 44033., 0., 0., 0., 16., 156.,
          0., 0., 0., 0., 672., 4., 0., 0., 818. ]
      - [ 41266., 28., 290., 32., 3407., 43298., 0., 0., 0., 12., 86.,
          0., 0., 0., 0., 690., 0., 0., 0., 871. ]
      - [ 41544., 36., 321., 28., 3077., 43359., 0., 0., 0., 8., 195.,
          0., 0., 0., 0., 591., 0., 0., 0., 817. ]
      - [ 40645., 28., 362., 32., 3220., 43986., 0., 0., 4., 16., 122.,
          0., 0., 0., 0., 686., 0., 0., 0., 883. ]
      - [ 39993., 32., 289., 28., 3413., 44578., 0., 0., 0., 12., 102.,
          0., 0., 0., 0., 766., 0., 1., 0., 770. ]
      - [ 40726., 48., 309., 16., 3046., 44414., 0., 0., 0., 4., 85., 0.,
          0., 0., 0., 661., 0., 4., 0., 667. ]
      - [ 39880., 44., 285., 16., 3271., 45081., 0., 0., 0., 0., 82., 0.,
          0., 0., 0., 596., 0., 0., 0., 717. ]
      - [ 45024., 16., 100., 8., 1800., 42976., 0., 0., 0., 0., 36., 0.,
          0., 0., 0., 12., 0., 0., 0., 28. ]
      - [ 45568., 36., 116., 12., 1504., 42588., 0., 0., 0., 0., 29., 0.,
          0., 0., 0., 109., 0., 0., 0., 38. ]
      - [ 44864., 24., 100., 12., 1773., 42999., 0., 0., 0., 0., 26., 0.,
          0., 0., 0., 132., 0., 0., 0., 70. ]
      - [ 46440., 4., 76., 8., 1097., 42228., 0., 0., 0., 0., 20., 0.,
          0., 0., 0., 107., 0., 0., 0., 20. ]
      - [ 46806., 4., 18., 4., 789., 42313., 0., 0., 0., 0., 12., 0., 0.,
          0., 0., 38., 0., 0., 0., 16. ]
      - [ 47163., 8., 28., 4., 735., 41908., 0., 0., 0., 0., 15., 0., 0.,
          0., 0., 113., 0., 0., 0., 26. ]
      - [ 46368., 5., 24., 0., 385., 43097., 0., 0., 0., 0., 0., 0., 0.,
          0., 0., 113., 0., 0., 0., 8. ]
      - [ 45516., 4., 4., 0., 211., 44206., 0., 0., 0., 0., 0., 0., 0.,
          0., 0., 50., 0., 0., 0., 9. ]
      - [ 48079., 8., 52., 4., 702., 41052., 0., 0., 0., 0., 16., 0., 0.,
          0., 0., 69., 0., 0., 0., 14. ]
      - [ 48898., 20., 76., 4., 1439., 39434., 0., 0., 0., 0., 8., 0.,
          0., 0., 0., 114., 0., 0., 0., 7. ]
      - [ 45292., 8., 72., 16., 1331., 43144., 0., 0., 0., 0., 8., 0.,
          0., 0., 0., 103., 0., 0., 0., 26. ]
      - [ 45538., 8., 112., 12., 1545., 42601., 0., 0., 0., 0., 21., 0.,
          0., 0., 0., 118., 0., 0., 0., 45. ]
      - [ 45355., 4., 88., 20., 1232., 43264., 0., 0., 0., 0., 9., 0.,
          0., 0., 0., 0., 0., 0., 0., 24. ]
      - [ 45524., 12., 76., 8., 1056., 43133., 0., 0., 0., 0., 20., 0.,
          0., 0., 0., 118., 0., 0., 0., 49. ]
      - [ 45176., 16., 60., 8., 1301., 43302., 0., 0., 0., 0., 24., 0.,
          0., 0., 0., 95., 0., 0., 0., 18. ]
      - [ 45326., 24., 28., 20., 852., 43594., 0., 0., 0., 0., 0., 0.,
          0., 0., 0., 118., 0., 0., 0., 38. ]
      - [ 46896., 0., 28., 0., 577., 42357., 0., 0., 0., 0., 4., 0., 0.,
          0., 0., 126., 0., 0., 0., 12. ]
      - [ 48816., 0., 32., 0., 518., 40534., 0., 0., 0., 0., 4., 0., 0.,
          0., 0., 92., 0., 0., 0., 4. ]
      - [ 47018., 0., 8., 0., 160., 42731., 0., 0., 0., 0., 0., 0., 0.,
          0., 0., 83., 0., 0., 0., 0. ]
      - [ 45568., 0., 0., 0., 96., 44245., 0., 0., 0., 0., 0., 0., 0.,
          0., 0., 89., 0., 0., 0., 2. ]
      - [ 51816., 8., 40., 12., 929., 37045., 0., 0., 0., 0., 28., 0.,
          0., 0., 0., 104., 0., 0., 0., 18. ]
      - [ 47458., 8., 92., 8., 1437., 40849., 0., 0., 0., 0., 9., 0., 0.,
          0., 0., 122., 0., 0., 0., 17. ]
      - [ 48716., 8., 84., 0., 1233., 39873., 0., 0., 0., 0., 8., 0., 0.,
          0., 0., 66., 0., 0., 0., 11. ]
      - [ 47279., 12., 92., 8., 1713., 40766., 0., 0., 0., 0., 12., 0.,
          0., 0., 0., 89., 0., 0., 0., 25. ]
      - [ 45386., 28., 44., 12., 795., 43699., 0., 0., 0., 0., 25., 0.,
          0., 0., 0., 9., 0., 0., 0., 2. ]
      - [ 46436., 4., 28., 4., 519., 42902., 0., 0., 0., 0., 6., 0., 0.,
          0., 0., 95., 0., 0., 0., 6. ]
      - [ 45469., 16., 44., 16., 1086., 43256., 0., 0., 0., 0., 0., 0.,
          0., 0., 0., 102., 0., 0., 0., 11. ]
      - [ 46305., 0., 36., 8., 613., 42909., 0., 0., 0., 0., 0., 0., 0.,
          0., 0., 115., 0., 0., 0., 14. ]
      - [ 47818., 4., 24., 4., 297., 41766., 0., 0., 0., 4., 4., 0., 0.,
          0., 0., 67., 0., 0., 0., 12. ]
      - [ 49144., 0., 12., 0., 276., 40418., 0., 0., 0., 0., 4., 0., 0.,
          0., 0., 146., 0., 0., 0., 0. ]
      - [ 46574., 0., 8., 0., 206., 43124., 0., 0., 0., 0., 0., 0., 0.,
          0., 0., 86., 0., 0., 0., 2. ]
      - [ 47312., 1., 4., 0., 136., 42440., 0., 0., 0., 0., 0., 0., 0.,
          0., 0., 105., 0., 0., 0., 2. ]
      - [ 50436., 20., 68., 16., 1280., 38021., 0., 0., 0., 0., 25., 0.,
          0., 0., 0., 110., 0., 0., 0., 20. ]
      - [ 47867., 12., 71., 8., 987., 40946., 0., 0., 0., 0., 0., 0., 0.,
          0., 0., 108., 0., 0., 0., 1. ]
      - [ 46984., 8., 56., 8., 901., 41919., 0., 0., 0., 0., 0., 0., 0.,
          0., 0., 120., 0., 0., 0., 4. ]
      - [ 48361., 4., 72., 4., 1355., 40029., 0., 0., 0., 8., 22., 0.,
          0., 0., 0., 133., 0., 0., 0., 12. ]
      - [ 44590., 16., 72., 12., 1076., 44178., 0., 0., 0., 0., 28., 0.,
          0., 0., 0., 16., 0., 0., 0., 12. ]
      - [ 46514., 8., 32., 0., 661., 42699., 0., 0., 0., 0., 8., 0., 0.,
          0., 0., 65., 0., 0., 0., 13. ]
      - [ 45241., 20., 52., 4., 852., 43718., 0., 0., 0., 0., 8., 0., 0.,
          0., 0., 94., 0., 0., 0., 11. ]
      - [ 47308., 0., 16., 8., 610., 41963., 0., 0., 0., 0., 8., 0., 0.,
          0., 0., 83., 0., 0., 0., 4. ]
      - [ 47793., 0., 4., 0., 161., 41934., 0., 0., 0., 0., 4., 0., 0.,
          0., 0., 94., 0., 0., 0., 10. ]
      - [ 48588., 0., 0., 4., 164., 41134., 0., 0., 0., 0., 0., 0., 0.,
          0., 0., 106., 0., 0., 0., 4. ]
      - [ 48579., 0., 24., 4., 247., 41006., 0., 0., 0., 0., 4., 0., 0.,
          0., 0., 136., 0., 0., 0., 0. ]
      - [ 49899., 0., 15., 4., 356., 39610., 0., 0., 0., 0., 0., 0., 0.,
          0., 0., 108., 0., 0., 0., 8. ]
      - [ 50015., 16., 72., 16., 1038., 38723., 0., 0., 0., 8., 28., 0.,
          0., 0., 0., 77., 0., 0., 0., 7. ]
      - [ 48138., 16., 80., 8., 1281., 40339., 0., 0., 0., 0., 2., 0.,
          0., 0., 0., 111., 0., 0., 0., 21. ]
      - [ 48519., 16., 96., 16., 1303., 39938., 0., 0., 0., 0., 20., 0.,
          0., 0., 0., 71., 0., 0., 0., 21. ]
      - [ 46946., 20., 68., 4., 1488., 41252., 0., 0., 0., 0., 12., 0.,
          0., 0., 0., 166., 0., 0., 0., 40. ]
      - [ 44983., 20., 48., 24., 1272., 43617., 0., 0., 0., 4., 10., 0.,
          0., 0., 0., 10., 0., 0., 0., 12. ]
      - [ 45857., 8., 64., 8., 1342., 42596., 0., 0., 0., 0., 28., 0.,
          0., 0., 0., 82., 0., 0., 0., 11. ]
      - [ 45803., 0., 60., 4., 710., 43332., 0., 0., 0., 0., 0., 0., 0.,
          0., 0., 81., 0., 0., 0., 10. ]
      - [ 47559., 4., 24., 5., 539., 41750., 0., 0., 0., 0., 12., 0., 0.,
          0., 0., 96., 0., 0., 0., 11. ]
      - [ 47911., 4., 4., 5., 140., 41836., 0., 0., 0., 0., 0., 0., 0.,
          0., 0., 99., 0., 0., 0., 1. ]
      - [ 47785., 0., 4., 0., 84., 41999., 0., 0., 0., 0., 0., 0., 0.,
          0., 0., 127., 0., 0., 0., 1. ]
      - [ 49507., 4., 28., 4., 449., 39842., 0., 0., 0., 0., 40., 0., 0.,
          0., 0., 118., 0., 0., 0., 4. ]
      - [ 48930., 4., 24., 0., 372., 40563., 0., 0., 0., 0., 8., 0., 0.,
          0., 0., 79., 0., 0., 0., 20. ]
      - [ 51849., 8., 52., 0., 628., 37336., 0., 0., 0., 12., 37., 0.,
          0., 0., 0., 78., 0., 0., 0., 0. ]
      - [ 51109., 4., 100., 12., 1217., 37389., 0., 0., 0., 0., 21., 0.,
          0., 0., 0., 115., 0., 0., 0., 33. ]
      - [ 51267., 12., 76., 4., 1604., 36859., 0., 0., 0., 4., 39., 0.,
          0., 0., 0., 124., 0., 0., 0., 7. ]
      - [ 48391., 12., 136., 24., 1687., 39564., 0., 0., 0., 0., 12., 0.,
          0., 0., 0., 132., 0., 0., 0., 42. ]
      - [ 45567., 24., 92., 12., 1829., 42266., 0., 0., 0., 0., 28., 0.,
          0., 0., 0., 68., 0., 0., 0., 110. ]
      - [ 46263., 20., 100., 16., 1490., 41986., 0., 0., 0., 0., 4., 0.,
          0., 0., 0., 99., 0., 4., 0., 18. ]
      - [ 46086., 8., 32., 4., 696., 43041., 0., 0., 0., 0., 8., 0., 0.,
          0., 0., 104., 0., 0., 0., 21. ]
      - [ 47998., 0., 32., 0., 536., 41311., 0., 0., 0., 0., 0., 0., 0.,
          0., 0., 105., 0., 1., 0., 13. ]
      - [ 50251., 4., 16., 0., 281., 39382., 0., 0., 0., 0., 4., 0., 0.,
          0., 0., 53., 0., 0., 0., 9. ]
      - [ 48488., 0., 0., 4., 104., 41357., 0., 0., 0., 0., 0., 0., 0.,
          0., 0., 45., 0., 0., 0., 2. ]
      - [ 49488., 4., 0., 0., 138., 40272., 0., 0., 0., 0., 0., 0., 0.,
          0., 0., 95., 0., 1., 0., 2. ]
      - [ 47877., 0., 0., 0., 52., 41966., 0., 0., 0., 0., 0., 0., 0.,
          0., 0., 105., 0., 0., 0., 0. ]
      - [ 52310., 8., 20., 8., 535., 36933., 0., 0., 0., 0., 48., 0., 0.,
          0., 0., 119., 0., 2., 0., 13. ]
      - [ 50956., 20., 96., 20., 1216., 37535., 0., 0., 0., 0., 56., 0.,
          0., 0., 0., 86., 0., 0., 0., 15. ]
      - [ 50687., 12., 156., 20., 1742., 37257., 0., 0., 0., 4., 34., 0.,
          0., 0., 0., 73., 0., 0., 0., 15. ]
      - [ 49162., 20., 112., 8., 1872., 38588., 0., 0., 0., 4., 72., 0.,
          0., 0., 0., 108., 0., 0., 0., 46. ]
      - [ 46327., 32., 144., 4., 1935., 41448., 0., 0., 0., 0., 44., 0.,
          0., 0., 0., 26., 0., 0., 0., 36. ]
      - [ 45478., 16., 72., 16., 1596., 42603., 0., 0., 0., 0., 28., 0.,
          0., 0., 0., 120., 0., 0., 0., 71. ]
      - [ 43677., 4., 82., 8., 1151., 44933., 0., 0., 0., 0., 20., 0.,
          0., 0., 0., 111., 0., 1., 0., 13. ]
      - [ 47233., 24., 48., 0., 1087., 41458., 0., 0., 0., 0., 20., 0.,
          0., 0., 0., 110., 0., 0., 0., 20. ]
      - [ 48340., 8., 20., 0., 383., 41168., 0., 0., 0., 0., 0., 0., 0.,
          0., 0., 72., 0., 2., 0., 7. ]
      - [ 48653., 9., 8., 0., 155., 41069., 0., 0., 0., 0., 0., 0., 0.,
          0., 0., 106., 0., 0., 0., 0. ]
      - [ 47939., 4., 4., 4., 202., 41737., 0., 0., 0., 0., 36., 0., 0.,
          0., 0., 65., 1., 0., 0., 8. ]
      - [ 48630., 0., 8., 0., 173., 41122., 0., 0., 0., 0., 0., 0., 0.,
          0., 0., 59., 0., 0., 0., 8. ]
      - [ 46402., 0., 8., 0., 274., 43180., 0., 0., 0., 0., 0., 0., 0.,
          0., 0., 131., 0., 0., 0., 5. ]
      - [ 45950., 8., 20., 0., 638., 43237., 0., 0., 0., 4., 12., 0., 0.,
          0., 0., 118., 0., 0., 0., 9. ]
      - [ 47005., 8., 99., 12., 1227., 41442., 0., 0., 0., 4., 29., 0.,
          0., 0., 0., 121., 0., 0., 0., 53. ]
      - [ 47146., 16., 117., 16., 1746., 40626., 0., 0., 0., 0., 57., 0.,
          0., 0., 0., 171., 0., 0., 0., 101. ]
      - [ 46072., 4., 0., 0., 50., 43758., 0., 0., 0., 0., 16., 0., 0.,
          0., 0., 100., 0., 0., 0., 0. ]
      - [ 47002., 4., 4., 0., 63., 42860., 0., 0., 0., 0., 15., 0., 0.,
          0., 0., 52., 0., 0., 0., 0. ]
      - [ 46224., 0., 8., 0., 78., 43593., 0., 0., 0., 0., 12., 0., 0.,
          0., 0., 84., 0., 0., 0., 0. ]
      - [ 46395., 0., 16., 0., 262., 43237., 0., 0., 0., 0., 18., 0., 0.,
          0., 0., 68., 0., 0., 0., 4. ]
      - [ 45480., 4., 40., 0., 504., 43808., 0., 0., 0., 0., 27., 0., 0.,
          0., 0., 117., 0., 0., 0., 20. ]
      - [ 42241., 4., 40., 0., 917., 46518., 0., 0., 0., 0., 30., 0., 0.,
          0., 0., 106., 0., 0., 0., 144. ]
      - [ 42295., 3., 60., 8., 749., 46626., 0., 0., 0., 4., 25., 0., 0.,
          0., 0., 129., 0., 4., 0., 93. ]
      - [ 42805., 8., 24., 0., 773., 46051., 0., 0., 0., 0., 15., 0., 0.,
          0., 0., 196., 0., 0., 0., 128. ]
      - [ 43918., 11., 38., 0., 461., 45390., 0., 0., 0., 0., 15., 0.,
          0., 0., 0., 147., 0., 0., 0., 20. ]
      - [ 44782., 0., 24., 4., 468., 44631., 0., 0., 0., 0., 15., 0., 0.,
          0., 0., 72., 0., 0., 0., 4. ]
      - [ 45856., 0., 0., 0., 24., 44055., 0., 0., 0., 0., 11., 0., 0.,
          0., 0., 54., 0., 0., 0., 0. ]
      - [ 44972., 0., 0., 0., 8., 44920., 0., 0., 0., 0., 12., 0., 0.,
          0., 0., 88., 0., 0., 0., 0. ]
      - [ 44572., 0., 8., 0., 76., 45214., 0., 0., 0., 0., 10., 0., 0.,
          0., 0., 120., 0., 0., 0., 0. ]
      - [ 43973., 8., 8., 0., 286., 45585., 0., 0., 0., 0., 11., 0., 0.,
          0., 0., 125., 0., 0., 0., 4. ]
      - [ 41872., 0., 24., 0., 500., 47351., 0., 0., 0., 0., 11., 0., 0.,
          0., 0., 201., 0., 0., 0., 41. ]
      - [ 41655., 4., 36., 12., 729., 47319., 0., 0., 0., 0., 19., 0.,
          0., 0., 0., 118., 0., 0., 0., 104. ]
      - [ 40763., 8., 62., 4., 908., 47760., 0., 0., 0., 0., 15., 0., 0.,
          0., 0., 300., 0., 0., 0., 164. ]
      - [ 42770., 0., 56., 8., 678., 46280., 0., 0., 0., 0., 14., 0., 0.,
          0., 0., 129., 0., 0., 0., 65. ]
      - [ 43456., 4., 12., 0., 417., 45975., 0., 0., 0., 0., 10., 0., 0.,
          0., 0., 98., 0., 0., 0., 28. ]
      - [ 43990., 4., 11., 0., 280., 45628., 0., 0., 0., 0., 10., 0., 0.,
          0., 0., 74., 0., 0., 0., 3. ]
      - [ 45293., 0., 0., 0., 12., 44657., 0., 0., 0., 0., 12., 0., 0.,
          0., 0., 26., 0., 0., 0., 0. ]
      - [ 44560., 0., 0., 0., 4., 45341., 0., 0., 0., 0., 14., 0., 0.,
          0., 0., 81., 0., 0., 0., 0. ]
      - [ 43598., 0., 0., 0., 99., 46169., 0., 0., 0., 0., 14., 0., 0.,
          0., 0., 120., 0., 0., 0., 0. ]
      - [ 42745., 0., 8., 0., 222., 46943., 0., 0., 0., 0., 10., 0., 0.,
          0., 0., 59., 0., 0., 0., 13. ]
      - [ 42289., 0., 16., 8., 400., 47106., 0., 0., 0., 0., 10., 0., 0.,
          0., 0., 139., 0., 0., 0., 32. ]
      - [ 39389., 4., 56., 0., 774., 49431., 0., 0., 0., 0., 8., 0., 0.,
          0., 0., 196., 0., 0., 0., 142. ]
      - [ 39491., 12., 56., 8., 702., 49458., 0., 0., 0., 0., 9., 0., 0.,
          0., 0., 124., 0., 0., 0., 136. ]
      - [ 41857., 0., 28., 0., 560., 47402., 0., 0., 0., 0., 8., 0., 0.,
          0., 0., 101., 0., 0., 0., 44. ]
      - [ 43157., 0., 16., 0., 404., 46241., 0., 0., 0., 0., 10., 0., 0.,
          0., 0., 155., 0., 0., 0., 17. ]
      - [ 45247., 0., 20., 0., 295., 44316., 0., 0., 0., 0., 10., 0., 0.,
          0., 0., 112., 0., 0., 0., 0. ]
      - [ 45424., 0., 0., 0., 4., 44502., 0., 0., 0., 0., 12., 0., 0.,
          0., 0., 58., 0., 0., 0., 0. ]
      - [ 41948., 0., 0., 0., 18., 47955., 0., 0., 0., 0., 11., 0., 0.,
          0., 0., 68., 0., 0., 0., 0. ]
      - [ 42869., 0., 4., 0., 24., 47011., 0., 0., 0., 0., 14., 0., 0.,
          0., 0., 78., 0., 0., 0., 0. ]
      - [ 41794., 4., 4., 4., 146., 47944., 0., 0., 0., 0., 11., 0., 0.,
          0., 0., 88., 0., 0., 0., 4. ]
      - [ 40399., 0., 28., 16., 511., 48865., 0., 0., 0., 0., 11., 0.,
          0., 0., 0., 99., 0., 0., 0., 71. ]
      - [ 40490., 0., 24., 8., 695., 48548., 0., 0., 0., 0., 10., 0., 0.,
          0., 0., 152., 0., 0., 0., 69. ]
      - [ 41057., 4., 36., 0., 697., 47975., 0., 0., 0., 0., 15., 0., 0.,
          0., 0., 168., 0., 0., 0., 48. ]
      - [ 41597., 0., 36., 4., 529., 47688., 0., 0., 0., 0., 11., 0., 0.,
          0., 0., 127., 0., 0., 0., 8. ]
      - [ 45315., 8., 16., 0., 350., 44215., 0., 0., 0., 0., 11., 0., 0.,
          0., 0., 85., 0., 0., 0., 0. ]
      - [ 45706., 0., 4., 0., 222., 43989., 0., 0., 0., 0., 10., 0., 0.,
          0., 0., 68., 0., 0., 0., 0. ]
      - [ 44576., 0., 0., 0., 14., 45297., 0., 0., 0., 0., 13., 0., 0.,
          0., 0., 100., 0., 0., 0., 0. ]
      - [ 42402., 0., 0., 0., 46., 47486., 0., 0., 0., 0., 11., 0., 0.,
          0., 0., 55., 0., 0., 0., 0. ]
      - [ 41623., 0., 0., 0., 52., 48223., 0., 0., 0., 0., 11., 0., 0.,
          0., 0., 91., 0., 0., 0., 0. ]
      - [ 40599., 4., 8., 0., 208., 49038., 0., 0., 0., 0., 11., 0., 0.,
          0., 0., 108., 0., 0., 0., 20. ]
      - [ 41369., 8., 20., 4., 399., 48114., 0., 0., 0., 0., 12., 0., 0.,
          0., 0., 66., 0., 0., 0., 8. ]
      - [ 39058., 0., 16., 0., 482., 50246., 0., 0., 0., 0., 11., 0., 0.,
          0., 0., 135., 0., 0., 0., 52. ]
      - [ 40822., 8., 12., 4., 628., 48286., 0., 0., 0., 0., 9., 0., 0.,
          0., 0., 167., 0., 0., 0., 64. ]
      - [ 42316., 8., 24., 4., 506., 47025., 0., 0., 0., 0., 11., 0., 0.,
          0., 0., 78., 0., 0., 0., 24. ]
      - [ 44362., 0., 12., 4., 382., 45111., 0., 0., 0., 0., 8., 0., 0.,
          0., 0., 119., 0., 0., 0., 2. ]
      - [ 45550., 4., 12., 0., 245., 44085., 0., 0., 0., 0., 11., 0., 0.,
          0., 0., 93., 0., 0., 0., 0. ]
      - [ 45173., 0., 0., 0., 6., 44701., 0., 0., 0., 0., 13., 0., 0.,
          0., 0., 107., 0., 0., 0., 0. ]
      - [ 43736., 0., 0., 0., 26., 46154., 0., 0., 0., 0., 12., 0., 0.,
          0., 0., 72., 0., 0., 0., 0. ]
      - [ 43158., 0., 0., 0., 76., 46684., 0., 0., 0., 0., 11., 0., 0.,
          0., 0., 71., 0., 0., 0., 0. ]
      - [ 42703., 0., 4., 0., 116., 47026., 0., 0., 0., 0., 11., 0., 0.,
          0., 1., 135., 0., 0., 0., 4. ]
      - [ 41130., 4., 16., 4., 470., 48261., 0., 0., 0., 0., 12., 0., 0.,
          0., 0., 103., 0., 0., 0., 0. ]
      - [ 42095., 4., 36., 8., 454., 47256., 0., 0., 0., 0., 12., 0., 0.,
          0., 0., 99., 0., 0., 0., 36. ]
      - [ 40438., 4., 24., 0., 405., 48987., 0., 0., 0., 0., 12., 0., 0.,
          0., 0., 106., 0., 0., 0., 24. ]
      - [ 43721., 4., 32., 0., 386., 45762., 0., 0., 0., 0., 12., 0., 0.,
          0., 0., 59., 0., 0., 0., 24. ]
      - [ 43602., 0., 16., 0., 318., 45991., 0., 0., 0., 0., 11., 0., 0.,
          0., 0., 50., 0., 0., 0., 12. ]
      - [ 45088., 0., 8., 0., 212., 44565., 0., 0., 0., 0., 14., 0., 0.,
          0., 0., 113., 0., 0., 0., 0. ]
      - [ 45703., 0., 0., 0., 44., 44193., 0., 0., 0., 0., 13., 0., 0.,
          0., 0., 47., 0., 0., 0., 0. ]
      - [ 43820., 0., 0., 0., 46., 46091., 0., 0., 0., 0., 11., 0., 0.,
          0., 0., 32., 0., 0., 0., 0. ]
      - [ 43086., 4., 4., 0., 114., 46619., 0., 0., 0., 0., 13., 0., 0.,
          0., 0., 160., 0., 0., 0., 0. ]
      - [ 44662., 0., 12., 8., 212., 44951., 0., 0., 0., 0., 13., 0., 0.,
          0., 0., 134., 0., 0., 0., 8. ]
      - [ 42445., 8., 36., 4., 410., 46876., 0., 0., 0., 0., 15., 0., 0.,
          0., 0., 122., 0., 0., 0., 80. ]
      - [ 43429., 0., 16., 4., 492., 45976., 0., 0., 0., 0., 12., 0., 0.,
          0., 0., 63., 0., 0., 0., 8. ]
      - [ 41875., 12., 8., 4., 492., 47485., 0., 0., 0., 0., 11., 0., 0.,
          0., 0., 101., 0., 0., 0., 12. ]
      - [ 43218., 0., 40., 4., 452., 46187., 0., 0., 0., 0., 12., 0., 0.,
          0., 0., 71., 0., 0., 0., 16. ]
      - [ 45059., 0., 12., 0., 251., 44526., 0., 0., 0., 0., 12., 0., 0.,
          0., 0., 140., 0., 0., 0., 0. ]
      - [ 44508., 4., 12., 0., 297., 45009., 0., 0., 0., 0., 12., 0., 0.,
          0., 0., 158., 0., 0., 0., 0. ]
      - [ 0., 0., 0., 0., 0., 0., 0., 0., 0., 0., 0., 0., 0., 0., 0., 0.,
          0., 0., 0., 0. ]
   decision_functions:
      -
         sv_count: 239
         rho: -4.8029414225941300e+00
         alpha: [ 2.1960493469238278e+00, 2.1960539550781242e+00,
             2.1960539550781242e+00, 2.1960539550781242e+00,
             2.1960539550781242e+00, 2.1960539550781242e+00,
             2.1960539550781242e+00, 2.1960539550781242e+00,
             2.1960493469238274e+00, 2.1960493469238274e+00,
             2.1960493469238274e+00, 2.1960493469238274e+00,
             2.1960493469238278e+00, 2.1960493469238278e+00,
             2.1960493469238278e+00, 2.1960493469238278e+00,
             2.1960493469238278e+00, 2.1960493469238278e+00,
             2.1960493469238278e+00, 2.1960493469238278e+00,
             2.1960493469238278e+00, 2.1960493469238278e+00,
             2.1960493469238282e+00, 2.1960493469238282e+00,
             2.1960493469238282e+00, 2.1960493469238282e+00,
             2.1960493469238282e+00, 2.1960493469238282e+00,
             2.1960493469238282e+00, 2.1960493469238282e+00,
             2.1960493469238282e+00, 2.1960493469238282e+00,
             2.1960493469238282e+00, 2.1960493469238282e+00,
             2.1960493469238287e+00, 2.1960493469238287e+00,
             2.1960493469238287e+00, 2.1960493469238287e+00,
             2.1960493469238282e+00, 2.1960493469238282e+00,
             2.1960493469238282e+00, 2.1960493469238282e+00,
             2.1960617675781249e+00, 2.1960617675781249e+00,
             2.1960617675781249e+00, 2.1960617675781249e+00,
             2.1960617675781249e+00, 2.1960617675781249e+00,
             2.1960617675781249e+00, 2.1960617675781249e+00,
             2.1960617675781249e+00, 2.1960617675781249e+00,
             2.1960617675781249e+00, 2.1960617675781249e+00,
             2.1960617675781249e+00, 2.1960617675781249e+00,
             2.1960617675781249e+00, 2.1960617675781249e+00,
             2.1960617675781249e+00, 2.1960617675781249e+00,
             2.1960617675781244e+00, 2.1960617675781244e+00,
             2.1960617675781244e+00, 2.1960617675781244e+00,
             2.1960617675781244e+00, 2.1960617675781244e+00,
             2.1960617675781244e+00, 2.1960617675781244e+00,
             2.1960617675781244e+00, 2.1960617675781244e+00,
             2.1960617675781249e+00, 2.1960617675781249e+00,
             2.1960617675781244e+00, 2.1960617675781244e+00,
             2.1960617675781244e+00, 2.1960617675781244e+00,
             2.1960617675781244e+00, 2.1960617675781244e+00,
             2.1960617675781244e+00, 2.1960617675781244e+00,
             2.1960617675781244e+00, 2.1960493469238274e+00,
             2.1960539550781246e+00, 2.1960539550781246e+00,
             1.9604934692382825e-01, 1.9604934692382825e-01,
             1.9604934692382825e-01, 1.9606176757812488e-01,
             1.9606176757812488e-01, 1.9606176757812488e-01,
             1.9606176757812488e-01, 1.9606176757812577e-01,
             1.9606176757812577e-01, 1.9606176757812577e-01,
             1.9606176757812577e-01, 1.9606176757812577e-01,
             1.9606176757812577e-01, 1.9606176757812577e-01,
             1.9606176757812577e-01, 1.9606176757812577e-01,
             1.9606176757812577e-01, 1.9606176757812577e-01,
             1.9606176757812577e-01, 1.9606176757812577e-01,
             1.9606176757812577e-01, 1.9606176757812577e-01,
             1.9606176757812577e-01, 1.9606176757812577e-01,
             1.9606176757812577e-01, 1.9606176757812532e-01,
             1.9606176757812532e-01, 1.9606176757812532e-01,
             1.9606176757812532e-01, 1.9606176757812532e-01,
             1.9606176757812532e-01, 1.9606176757812532e-01,
             1.9606176757812532e-01, 1.9606176757812532e-01,
             1.9606176757812532e-01, 1.9606176757812532e-01,
             1.9606176757812532e-01, 1.9606176757812532e-01,
             1.9606176757812532e-01, 1.9606176757812532e-01,
             1.9606176757812532e-01, 1.9606176757812532e-01,
             1.9606176757812532e-01, 1.9605395507812418e-01,
             1.9605395507812418e-01, 1.9605395507812418e-01,
             1.9605395507812418e-01, 1.9605395507812418e-01,
             1.9605395507812418e-01, 1.9605395507812418e-01,
             1.9605395507812418e-01, 1.9606176757812444e-01,
             1.9606176757812444e-01, 1.9606176757812444e-01,
             1.9606176757812444e-01, 1.9606176757812399e-01,
             1.9606176757812399e-01, 1.9606176757812399e-01,
             1.9606176757812399e-01, 1.9606176757812488e-01,
             1.9606176757812488e-01, 1.9606176757812488e-01,
             1.9606176757812488e-01, 1.9606176757812488e-01,
             1.9606176757812488e-01, 1.9606176757812488e-01,
             1.9606176757812488e-01, 1.9606176757812488e-01,
             1.9606176757812488e-01, 1.9606176757812488e-01,
             1.9606176757812488e-01, 1.9606176757812488e-01,
             1.9606176757812488e-01, 1.9606176757812488e-01,
             1.9606176757812488e-01, 1.9606176757812488e-01,
             1.9606176757812488e-01, 1.9606176757812488e-01,
             1.9606176757812488e-01, 1.9606176757812488e-01,
             1.9606176757812488e-01, 1.9606176757812488e-01,
             1.9606176757812488e-01, 1.9606176757812488e-01,
             -2.8019382324218745e+00, -2.8019382324218745e+00,
             -2.8019382324218745e+00, -2.8019382324218745e+00,
             -2.8019382324218745e+00, -2.8019382324218745e+00,
             -2.8019382324218745e+00, -2.8019382324218745e+00,
             -2.8019382324218745e+00, -2.8019382324218745e+00,
             -2.8019382324218745e+00, -2.8019382324218753e+00,
             -2.8019382324218753e+00, -2.8019382324218753e+00,
             -2.8019382324218753e+00, -2.8019382324218753e+00,
             -2.8019382324218753e+00, -2.8019382324218753e+00,
             -2.8019382324218753e+00, -2.8019382324218753e+00,
             -2.8019382324218753e+00, -2.8019382324218753e+00,
             -2.8019382324218753e+00, -2.8019382324218753e+00,
             -2.8019382324218753e+00, -2.8019382324218753e+00,
             -2.8019382324218753e+00, -2.8019382324218753e+00,
             -2.8019382324218745e+00, -2.8019382324218745e+00,
             -2.8019382324218745e+00, -2.8019382324218745e+00,
             -2.8019382324218745e+00, -2.8019382324218745e+00,
             -2.8019382324218745e+00, -2.8019382324218745e+00,
             -2.8019382324218745e+00, -2.8019382324218745e+00,
             -2.8019382324218745e+00, -2.8019382324218745e+00,
             -2.8019382324218745e+00, -2.8019382324218745e+00,
             -2.8019382324218745e+00, -2.8019382324218745e+00,
             -2.8019382324218745e+00, -2.8019382324218745e+00,
             -2.8019382324218745e+00, -2.8019382324218745e+00,
             -2.8019382324218745e+00, -2.8019382324218745e+00,
             -2.8019382324218745e+00, -2.8019382324218745e+00,
             -2.8019382324218745e+00, -2.8019460449218747e+00,
             -2.8019460449218747e+00, -2.8019460449218747e+00,
             -2.8019460449218747e+00, -2.8019460449218747e+00,
             -2.8019460449218747e+00, -2.8019460449218747e+00,
             -2.8019460449218747e+00, -2.8019460449218747e+00,
             -2.8019460449218747e+00, -2.8019460449218747e+00,
             -2.8019460449218747e+00, -2.8019460449218747e+00,
             -2.8019460449218747e+00, -2.8019460449218747e+00,
             -2.8019460449218747e+00, -2.8019506530761715e+00,
             -4.8019460449218752e+00 ]
